<?xml version="1.0"?>
<opencv_storage>
<!-- Created using Computer Vision System Toolbox(tm) for MATLAB(R) -->
<!-- Version 9.0.0.341360 (R2016a) -->
<!-- Compatible with OpenCV 2.4 -->
<cascade>
  <stageType>BOOST</stageType>
  <featureType>HOG</featureType>
  <height>32</height>
  <width>33</width>
  <stageParams>
    <boostType>GAB</boostType>
    <minHitRate>9.9500000476837158e-01</minHitRate>
    <maxFalseAlarm>2.0000000298023224e-01</maxFalseAlarm>
    <weightTrimRate>9.4999999999999996e-01</weightTrimRate>
    <maxDepth>1</maxDepth>
    <maxWeakCount>100</maxWeakCount></stageParams>
  <featureParams>
    <maxCatCount>0</maxCatCount>
    <featSize>36</featSize></featureParams>
  <stageNum>7</stageNum>
  <stages>
    <!-- stage 0 -->
    <_>
      <maxWeakCount>5</maxWeakCount>
      <stageThreshold>-1.1449197530746460e+00</stageThreshold>
      <weakClassifiers>
        <_>
          <internalNodes>
            0 -1 49 2.7636259794235229e-02</internalNodes>
          <leafValues>
            6.4204543828964233e-01 -8.8978928327560425e-01</leafValues></_>
        <_>
          <internalNodes>
            0 -1 0 2.0532118156552315e-02</internalNodes>
          <leafValues>
            6.4609473943710327e-01 -7.9741621017456055e-01</leafValues></_>
        <_>
          <internalNodes>
            0 -1 15 2.3641407489776611e-02</internalNodes>
          <leafValues>
            6.7398095130920410e-01 -6.3307052850723267e-01</leafValues></_>
        <_>
          <internalNodes>
            0 -1 67 2.9675541445612907e-02</internalNodes>
          <leafValues>
            -5.9035664796829224e-01 6.8813633918762207e-01</leafValues></_>
        <_>
          <internalNodes>
            0 -1 18 3.4569650888442993e-02</internalNodes>
          <leafValues>
            4.5866143703460693e-01 -7.5764948129653931e-01</leafValues></_></weakClassifiers></_>
    <!-- stage 1 -->
    <_>
      <maxWeakCount>8</maxWeakCount>
      <stageThreshold>-1.0532112121582031e+00</stageThreshold>
      <weakClassifiers>
        <_>
          <internalNodes>
            0 -1 58 2.5742407888174057e-02</internalNodes>
          <leafValues>
            4.2408376932144165e-01 -8.2623511552810669e-01</leafValues></_>
        <_>
          <internalNodes>
            0 -1 40 4.7283571213483810e-02</internalNodes>
          <leafValues>
            -5.6271380186080933e-01 7.3610478639602661e-01</leafValues></_>
        <_>
          <internalNodes>
            0 -1 47 3.4857012331485748e-02</internalNodes>
          <leafValues>
            4.4456040859222412e-01 -8.5690689086914063e-01</leafValues></_>
        <_>
          <internalNodes>
            0 -1 25 1.7104199156165123e-02</internalNodes>
          <leafValues>
            -8.3209222555160522e-01 3.3480802178382874e-01</leafValues></_>
        <_>
          <internalNodes>
            0 -1 63 2.2958304733037949e-02</internalNodes>
          <leafValues>
            5.6260514259338379e-01 -5.8490902185440063e-01</leafValues></_>
        <_>
          <internalNodes>
            0 -1 36 2.7341496199369431e-02</internalNodes>
          <leafValues>
            -5.0048482418060303e-01 5.3908908367156982e-01</leafValues></_>
        <_>
          <internalNodes>
            0 -1 46 2.7205061167478561e-02</internalNodes>
          <leafValues>
            -6.5998536348342896e-01 3.6202022433280945e-01</leafValues></_>
        <_>
          <internalNodes>
            0 -1 28 2.3894935846328735e-02</internalNodes>
          <leafValues>
            -6.2836962938308716e-01 4.0706923604011536e-01</leafValues></_></weakClassifiers></_>
    <!-- stage 2 -->
    <_>
      <maxWeakCount>10</maxWeakCount>
      <stageThreshold>-1.0840674638748169e+00</stageThreshold>
      <weakClassifiers>
        <_>
          <internalNodes>
            0 -1 57 3.9942532777786255e-02</internalNodes>
          <leafValues>
            -6.9875776767730713e-01 3.9076924324035645e-01</leafValues></_>
        <_>
          <internalNodes>
            0 -1 2 3.4046210348606110e-02</internalNodes>
          <leafValues>
            -4.9869328737258911e-01 4.8225179314613342e-01</leafValues></_>
        <_>
          <internalNodes>
            0 -1 44 2.5152347981929779e-02</internalNodes>
          <leafValues>
            4.3443205952644348e-01 -5.2717107534408569e-01</leafValues></_>
        <_>
          <internalNodes>
            0 -1 56 2.9204055666923523e-02</internalNodes>
          <leafValues>
            -4.9987888336181641e-01 4.7157269716262817e-01</leafValues></_>
        <_>
          <internalNodes>
            0 -1 16 2.8045203536748886e-02</internalNodes>
          <leafValues>
            -5.2031958103179932e-01 4.7709923982620239e-01</leafValues></_>
        <_>
          <internalNodes>
            0 -1 66 3.1107282266020775e-02</internalNodes>
          <leafValues>
            4.3145057559013367e-01 -6.0881012678146362e-01</leafValues></_>
        <_>
          <internalNodes>
            0 -1 36 4.1584566235542297e-02</internalNodes>
          <leafValues>
            -3.5850730538368225e-01 6.7566120624542236e-01</leafValues></_>
        <_>
          <internalNodes>
            0 -1 8 1.1830557137727737e-02</internalNodes>
          <leafValues>
            6.5489077568054199e-01 -3.6139950156211853e-01</leafValues></_>
        <_>
          <internalNodes>
            0 -1 9 4.8603124916553497e-02</internalNodes>
          <leafValues>
            -2.2740975022315979e-01 7.6012623310089111e-01</leafValues></_>
        <_>
          <internalNodes>
            0 -1 64 3.3890284597873688e-02</internalNodes>
          <leafValues>
            2.4356439709663391e-01 -8.9031225442886353e-01</leafValues></_></weakClassifiers></_>
    <!-- stage 3 -->
    <_>
      <maxWeakCount>6</maxWeakCount>
      <stageThreshold>-1.1954081058502197e+00</stageThreshold>
      <weakClassifiers>
        <_>
          <internalNodes>
            0 -1 48 2.5841124355792999e-02</internalNodes>
          <leafValues>
            -8.9724773168563843e-01 3.9150944352149963e-01</leafValues></_>
        <_>
          <internalNodes>
            0 -1 69 1.4476459473371506e-02</internalNodes>
          <leafValues>
            -7.9503071308135986e-01 3.9927491545677185e-01</leafValues></_>
        <_>
          <internalNodes>
            0 -1 52 9.6038840711116791e-03</internalNodes>
          <leafValues>
            -8.2677620649337769e-01 2.9886659979820251e-01</leafValues></_>
        <_>
          <internalNodes>
            0 -1 60 1.5573605895042419e-02</internalNodes>
          <leafValues>
            -8.5324758291244507e-01 2.5361084938049316e-01</leafValues></_>
        <_>
          <internalNodes>
            0 -1 21 1.7249174416065216e-02</internalNodes>
          <leafValues>
            -7.3804628849029541e-01 3.3518183231353760e-01</leafValues></_>
        <_>
          <internalNodes>
            0 -1 5 3.2906420528888702e-02</internalNodes>
          <leafValues>
            -5.1186656951904297e-01 5.1480919122695923e-01</leafValues></_></weakClassifiers></_>
    <!-- stage 4 -->
    <_>
      <maxWeakCount>12</maxWeakCount>
      <stageThreshold>-1.1913585662841797e+00</stageThreshold>
      <weakClassifiers>
        <_>
          <internalNodes>
            0 -1 62 2.3895278573036194e-02</internalNodes>
          <leafValues>
            -8.2300883531570435e-01 9.4777561724185944e-02</leafValues></_>
        <_>
          <internalNodes>
            0 -1 55 2.3448212072253227e-02</internalNodes>
          <leafValues>
            -8.1022375822067261e-01 3.0881905555725098e-01</leafValues></_>
        <_>
          <internalNodes>
            0 -1 19 9.8616247996687889e-03</internalNodes>
          <leafValues>
            -7.8474992513656616e-01 2.9153013229370117e-01</leafValues></_>
        <_>
          <internalNodes>
            0 -1 6 2.3371722549200058e-02</internalNodes>
          <leafValues>
            -6.3262790441513062e-01 3.0191913247108459e-01</leafValues></_>
        <_>
          <internalNodes>
            0 -1 41 2.6771819218993187e-02</internalNodes>
          <leafValues>
            -5.4504233598709106e-01 3.4126660227775574e-01</leafValues></_>
        <_>
          <internalNodes>
            0 -1 51 2.0944198593497276e-02</internalNodes>
          <leafValues>
            -6.5661770105361938e-01 3.3726844191551208e-01</leafValues></_>
        <_>
          <internalNodes>
            0 -1 53 1.7402276396751404e-02</internalNodes>
          <leafValues>
            -7.5329768657684326e-01 2.4680034816265106e-01</leafValues></_>
        <_>
          <internalNodes>
            0 -1 61 2.2236619144678116e-02</internalNodes>
          <leafValues>
            -6.4939737319946289e-01 2.7157813310623169e-01</leafValues></_>
        <_>
          <internalNodes>
            0 -1 50 2.0457612350583076e-02</internalNodes>
          <leafValues>
            -5.1432889699935913e-01 3.6491966247558594e-01</leafValues></_>
        <_>
          <internalNodes>
            0 -1 31 2.1548032760620117e-02</internalNodes>
          <leafValues>
            -7.8669524192810059e-01 1.8295308947563171e-01</leafValues></_>
        <_>
          <internalNodes>
            0 -1 11 2.4384092539548874e-02</internalNodes>
          <leafValues>
            -4.9237033724784851e-01 3.1133475899696350e-01</leafValues></_>
        <_>
          <internalNodes>
            0 -1 37 2.3094529286026955e-02</internalNodes>
          <leafValues>
            -3.8351908326148987e-01 4.5029181241989136e-01</leafValues></_></weakClassifiers></_>
    <!-- stage 5 -->
    <_>
      <maxWeakCount>17</maxWeakCount>
      <stageThreshold>-9.0769284963607788e-01</stageThreshold>
      <weakClassifiers>
        <_>
          <internalNodes>
            0 -1 0 1.1125061661005020e-02</internalNodes>
          <leafValues>
            2.5000000000000000e-01 -6.3182526826858521e-01</leafValues></_>
        <_>
          <internalNodes>
            0 -1 39 2.1154217422008514e-02</internalNodes>
          <leafValues>
            -6.8040603399276733e-01 1.8975207209587097e-01</leafValues></_>
        <_>
          <internalNodes>
            0 -1 33 2.0868457853794098e-02</internalNodes>
          <leafValues>
            -6.0070711374282837e-01 2.7043521404266357e-01</leafValues></_>
        <_>
          <internalNodes>
            0 -1 32 2.1574173122644424e-02</internalNodes>
          <leafValues>
            -6.0544157028198242e-01 2.3864458501338959e-01</leafValues></_>
        <_>
          <internalNodes>
            0 -1 10 9.2353895306587219e-03</internalNodes>
          <leafValues>
            4.3837982416152954e-01 -3.5105553269386292e-01</leafValues></_>
        <_>
          <internalNodes>
            0 -1 20 2.2428050637245178e-02</internalNodes>
          <leafValues>
            -5.0676387548446655e-01 2.8475743532180786e-01</leafValues></_>
        <_>
          <internalNodes>
            0 -1 28 1.9049404188990593e-02</internalNodes>
          <leafValues>
            -7.1239101886749268e-01 1.9195950031280518e-01</leafValues></_>
        <_>
          <internalNodes>
            0 -1 59 5.0026993267238140e-03</internalNodes>
          <leafValues>
            7.7958703041076660e-01 -2.1953397989273071e-01</leafValues></_>
        <_>
          <internalNodes>
            0 -1 68 2.6844874024391174e-02</internalNodes>
          <leafValues>
            -5.2541822195053101e-01 2.9425778985023499e-01</leafValues></_>
        <_>
          <internalNodes>
            0 -1 12 1.9149253144860268e-02</internalNodes>
          <leafValues>
            2.7621245384216309e-01 -5.0447314977645874e-01</leafValues></_>
        <_>
          <internalNodes>
            0 -1 4 1.9382901489734650e-02</internalNodes>
          <leafValues>
            -6.1358726024627686e-01 1.8458285927772522e-01</leafValues></_>
        <_>
          <internalNodes>
            0 -1 65 1.6945933923125267e-02</internalNodes>
          <leafValues>
            -6.1756402254104614e-01 1.9179826974868774e-01</leafValues></_>
        <_>
          <internalNodes>
            0 -1 34 2.3778680711984634e-02</internalNodes>
          <leafValues>
            2.1704649925231934e-01 -5.8806157112121582e-01</leafValues></_>
        <_>
          <internalNodes>
            0 -1 23 2.7198679745197296e-02</internalNodes>
          <leafValues>
            -3.5657629370689392e-01 3.4022095799446106e-01</leafValues></_>
        <_>
          <internalNodes>
            0 -1 38 1.1315244249999523e-02</internalNodes>
          <leafValues>
            5.3345268964767456e-01 -2.2539368271827698e-01</leafValues></_>
        <_>
          <internalNodes>
            0 -1 17 7.6776109635829926e-03</internalNodes>
          <leafValues>
            -9.2880541086196899e-01 1.4419540762901306e-01</leafValues></_>
        <_>
          <internalNodes>
            0 -1 29 1.5607796609401703e-02</internalNodes>
          <leafValues>
            -6.1687475442886353e-01 1.6729421913623810e-01</leafValues></_></weakClassifiers></_>
    <!-- stage 6 -->
    <_>
      <maxWeakCount>19</maxWeakCount>
      <stageThreshold>-1.1685056686401367e+00</stageThreshold>
      <weakClassifiers>
        <_>
          <internalNodes>
            0 -1 7 1.0967980138957500e-02</internalNodes>
          <leafValues>
            3.0405405163764954e-01 -6.1367011070251465e-01</leafValues></_>
        <_>
          <internalNodes>
            0 -1 40 3.0820704996585846e-02</internalNodes>
          <leafValues>
            -5.7885539531707764e-01 2.9047685861587524e-01</leafValues></_>
        <_>
          <internalNodes>
            0 -1 46 3.7332840263843536e-02</internalNodes>
          <leafValues>
            -3.9259713888168335e-01 4.4913795590400696e-01</leafValues></_>
        <_>
          <internalNodes>
            0 -1 54 3.4917876124382019e-02</internalNodes>
          <leafValues>
            -5.0640207529067993e-01 3.0612811446189880e-01</leafValues></_>
        <_>
          <internalNodes>
            0 -1 1 6.4366953447461128e-03</internalNodes>
          <leafValues>
            5.1271057128906250e-01 -2.6959225535392761e-01</leafValues></_>
        <_>
          <internalNodes>
            0 -1 49 1.9029743969440460e-02</internalNodes>
          <leafValues>
            3.5639473795890808e-01 -3.9772498607635498e-01</leafValues></_>
        <_>
          <internalNodes>
            0 -1 27 2.4086594581604004e-02</internalNodes>
          <leafValues>
            3.0686980485916138e-01 -4.9102082848548889e-01</leafValues></_>
        <_>
          <internalNodes>
            0 -1 24 2.7000350877642632e-02</internalNodes>
          <leafValues>
            2.2312094271183014e-01 -5.0872081518173218e-01</leafValues></_>
        <_>
          <internalNodes>
            0 -1 35 2.3667261004447937e-02</internalNodes>
          <leafValues>
            -4.8109424114227295e-01 2.8050321340560913e-01</leafValues></_>
        <_>
          <internalNodes>
            0 -1 22 3.2875366508960724e-02</internalNodes>
          <leafValues>
            -4.2466834187507629e-01 2.8863736987113953e-01</leafValues></_>
        <_>
          <internalNodes>
            0 -1 45 1.6757324337959290e-02</internalNodes>
          <leafValues>
            3.8943308591842651e-01 -3.3646443486213684e-01</leafValues></_>
        <_>
          <internalNodes>
            0 -1 30 3.4458108246326447e-02</internalNodes>
          <leafValues>
            -3.1933242082595825e-01 3.5758310556411743e-01</leafValues></_>
        <_>
          <internalNodes>
            0 -1 13 2.2727489471435547e-02</internalNodes>
          <leafValues>
            -5.8013993501663208e-01 2.1494005620479584e-01</leafValues></_>
        <_>
          <internalNodes>
            0 -1 41 3.0645199120044708e-02</internalNodes>
          <leafValues>
            -3.9142689108848572e-01 2.5603348016738892e-01</leafValues></_>
        <_>
          <internalNodes>
            0 -1 26 2.3762200027704239e-02</internalNodes>
          <leafValues>
            2.4720451235771179e-01 -4.7364100813865662e-01</leafValues></_>
        <_>
          <internalNodes>
            0 -1 43 2.3295436054468155e-02</internalNodes>
          <leafValues>
            -4.9381196498870850e-01 1.8686228990554810e-01</leafValues></_>
        <_>
          <internalNodes>
            0 -1 42 5.2315887063741684e-02</internalNodes>
          <leafValues>
            -1.9067513942718506e-01 5.7988733053207397e-01</leafValues></_>
        <_>
          <internalNodes>
            0 -1 3 2.3612054064869881e-02</internalNodes>
          <leafValues>
            -3.6170518398284912e-01 2.9009863734245300e-01</leafValues></_>
        <_>
          <internalNodes>
            0 -1 14 7.9113587737083435e-02</internalNodes>
          <leafValues>
            -1.2323860824108124e-01 9.5922100543975830e-01</leafValues></_></weakClassifiers></_></stages>
  <features>
    <_>
      <rect>
        0 0 8 8 4</rect></_>
    <_>
      <rect>
        0 0 8 8 6</rect></_>
    <_>
      <rect>
        0 0 8 8 18</rect></_>
    <_>
      <rect>
        0 4 8 8 0</rect></_>
    <_>
      <rect>
        0 4 8 8 26</rect></_>
    <_>
      <rect>
        0 12 8 8 8</rect></_>
    <_>
      <rect>
        0 12 8 8 28</rect></_>
    <_>
      <rect>
        0 16 8 8 18</rect></_>
    <_>
      <rect>
        0 16 8 8 19</rect></_>
    <_>
      <rect>
        4 0 8 8 2</rect></_>
    <_>
      <rect>
        4 0 8 8 6</rect></_>
    <_>
      <rect>
        4 4 8 8 11</rect></_>
    <_>
      <rect>
        4 4 8 8 23</rect></_>
    <_>
      <rect>
        4 8 8 8 33</rect></_>
    <_>
      <rect>
        4 12 8 8 19</rect></_>
    <_>
      <rect>
        4 12 8 8 31</rect></_>
    <_>
      <rect>
        4 12 8 8 33</rect></_>
    <_>
      <rect>
        4 12 8 8 34</rect></_>
    <_>
      <rect>
        4 16 8 8 4</rect></_>
    <_>
      <rect>
        8 4 8 8 7</rect></_>
    <_>
      <rect>
        8 8 8 8 33</rect></_>
    <_>
      <rect>
        8 12 8 8 2</rect></_>
    <_>
      <rect>
        8 12 8 8 19</rect></_>
    <_>
      <rect>
        8 12 8 8 20</rect></_>
    <_>
      <rect>
        8 12 8 8 31</rect></_>
    <_>
      <rect>
        12 0 8 8 3</rect></_>
    <_>
      <rect>
        12 0 8 8 16</rect></_>
    <_>
      <rect>
        12 0 8 8 17</rect></_>
    <_>
      <rect>
        12 0 8 8 21</rect></_>
    <_>
      <rect>
        12 0 8 8 30</rect></_>
    <_>
      <rect>
        12 4 8 8 2</rect></_>
    <_>
      <rect>
        12 4 8 8 4</rect></_>
    <_>
      <rect>
        12 8 8 8 14</rect></_>
    <_>
      <rect>
        12 8 8 8 19</rect></_>
    <_>
      <rect>
        12 8 8 8 29</rect></_>
    <_>
      <rect>
        12 12 8 8 15</rect></_>
    <_>
      <rect>
        12 12 8 8 32</rect></_>
    <_>
      <rect>
        12 16 8 8 30</rect></_>
    <_>
      <rect>
        16 0 8 8 13</rect></_>
    <_>
      <rect>
        16 0 8 8 34</rect></_>
    <_>
      <rect>
        16 4 8 8 15</rect></_>
    <_>
      <rect>
        16 4 8 8 35</rect></_>
    <_>
      <rect>
        16 8 8 8 16</rect></_>
    <_>
      <rect>
        16 12 8 8 5</rect></_>
    <_>
      <rect>
        16 16 8 8 31</rect></_>
    <_>
      <rect>
        16 16 8 8 34</rect></_>
    <_>
      <rect>
        0 0 8 16 1</rect></_>
    <_>
      <rect>
        0 0 8 16 4</rect></_>
    <_>
      <rect>
        0 0 8 16 12</rect></_>
    <_>
      <rect>
        0 0 8 16 22</rect></_>
    <_>
      <rect>
        0 0 8 16 29</rect></_>
    <_>
      <rect>
        4 0 8 16 3</rect></_>
    <_>
      <rect>
        4 0 8 16 21</rect></_>
    <_>
      <rect>
        4 0 8 16 33</rect></_>
    <_>
      <rect>
        12 0 8 16 4</rect></_>
    <_>
      <rect>
        16 0 8 16 3</rect></_>
    <_>
      <rect>
        16 0 8 16 5</rect></_>
    <_>
      <rect>
        16 0 8 16 15</rect></_>
    <_>
      <rect>
        16 0 8 16 31</rect></_>
    <_>
      <rect>
        0 0 16 8 10</rect></_>
    <_>
      <rect>
        0 0 16 8 14</rect></_>
    <_>
      <rect>
        0 0 16 8 18</rect></_>
    <_>
      <rect>
        0 0 16 8 34</rect></_>
    <_>
      <rect>
        0 8 16 8 22</rect></_>
    <_>
      <rect>
        0 12 16 8 22</rect></_>
    <_>
      <rect>
        0 12 16 8 28</rect></_>
    <_>
      <rect>
        0 16 16 8 13</rect></_>
    <_>
      <rect>
        0 16 16 8 15</rect></_>
    <_>
      <rect>
        0 0 16 16 2</rect></_>
    <_>
      <rect>
        0 0 16 16 23</rect></_></features></cascade>
</opencv_storage>
